digraph Tree {
node [shape=box, style="filled", color="black"] ;
0 [label="X[1] <= 0.8\ngini = 0.667\nsamples = 100\nvalue = [33, 33, 34]", fillcolor="#8139e504"] ;
1 [label="gini = 0.0\nsamples = 33\nvalue = [33, 0, 0]", fillcolor="#e58139ff"] ;
0 -> 1 [labeldistance=2.5, labelangle=45, headlabel="True"] ;
2 [label="X[1] <= 1.65\ngini = 0.5\nsamples = 67\nvalue = [0, 33, 34]", fillcolor="#8139e508"] ;
0 -> 2 [labeldistance=2.5, labelangle=-45, headlabel="False"] ;
3 [label="X[0] <= 4.95\ngini = 0.111\nsamples = 34\nvalue = [0, 32, 2]", fillcolor="#39e581ef"] ;
2 -> 3 ;
4 [label="gini = 0.0\nsamples = 31\nvalue = [0, 31, 0]", fillcolor="#39e581ff"] ;
3 -> 4 ;
5 [label="gini = 0.444\nsamples = 3\nvalue = [0, 1, 2]", fillcolor="#8139e57f"] ;
3 -> 5 ;
6 [label="X[0] <= 4.85\ngini = 0.059\nsamples = 33\nvalue = [0, 1, 32]", fillcolor="#8139e5f7"] ;
2 -> 6 ;
7 [label="gini = 0.375\nsamples = 4\nvalue = [0, 1, 3]", fillcolor="#8139e5aa"] ;
6 -> 7 ;
8 [label="gini = 0.0\nsamples = 29\nvalue = [0, 0, 29]", fillcolor="#8139e5ff"] ;
6 -> 8 ;
}